svm_type c_svc
kernel_type rbf
gamma 0.25
nr_class 2
total_sv 86
rho 0.06314699158432098
label 1 -1
nr_sv 38 48
SV
0.8243151253368759 1:5.62 2:8.65 3:9.58 4:5.72 
0.73531642054163482 1:9.66 2:9.27 3:9.68 4:7.5 
1 1:8.12 2:5.23 3:9.4 4:6.21 
1 1:3.41 2:8.73 3:6 4:9.73 
0.38020509905876804 1:9.06 2:9.03 3:9.77 4:9.34 
1 1:7.96 2:6.58 3:8.97 4:3.49 
0.30219325724407364 1:6.02 2:5.55 3:6.99 4:8.7 
1 1:7.28 2:9.74 3:7.31 4:3.83 
1 1:3.98 2:4.76 3:9.93 4:7.88 
1 1:5.56 2:5.11 3:6.63 4:9.14 
0.23594431481004011 1:6.19 2:4.99 3:9.14 4:8.15 
0.5387101022447307 1:8.5 2:3.26 3:8.19 4:8.62 
0.75834897811937252 1:7.25 2:9.36 3:8.67 4:9.93 
0.31623170221646008 1:9.64 2:6.43 3:9.39 4:8.43 
0.78135596824555953 1:9.76 2:9.9 3:6.58 4:5.39 
0.22254237916028971 1:8.66 2:4.69 3:6.51 4:9.52 
0.1638910307920988 1:5.13 2:7.7 3:8.59 4:9.01 
0.53472293098722623 1:6.47 2:7.43 3:5.37 4:9.32 
0.78844203475944163 1:9.37 2:6.75 3:3.66 4:8.79 
0.57003712102585324 1:7.64 2:8.85 3:3.25 4:9.27 
0.61583549880508148 1:9.58 2:6.58 3:8.76 4:9.65 
1 1:9.26 2:4.59 3:5.52 4:7.01 
1 1:7.19 2:7.52 3:3.89 4:7.42 
1 1:9.45 2:4.22 3:6.66 4:6.14 
1 1:3.32 2:9.56 3:7.36 4:7.71 
0.4768077582014561 1:8.8 2:9.47 3:6.78 4:3.64 
1 1:5.5 2:9.14 3:7.46 4:6.46 
0.16189047056623856 1:6.8 2:7.62 3:9.83 4:6.85 
0.18382104242740954 1:8.62 2:6.89 3:5.26 4:9.21 
0.66834935931113459 1:8.71 2:7.43 3:9.74 4:3.71 
1 1:5.51 2:9.21 3:4.1 4:7.94 
1 1:9.04 2:7.49 3:6.84 4:3.59 
0.56006688201438914 1:5.18 2:7.25 3:9.68 4:8.69 
1 1:5.28 2:3.06 3:8.17 4:9.63 
0.73164421885959008 1:8.11 2:3.71 3:6.88 4:9.9 
0.15066849244130845 1:7.46 2:7.64 3:7.28 4:8.27 
0.1535157409431028 1:7.99 2:7.84 3:8.3 4:6.91 
0.24497342620237264 1:5.99 2:8.23 3:7.93 4:6.28 
-0.63048437928469714 1:7.19 2:3.77 3:5.59 4:6.82 
-0.64268948319100438 1:4.09 2:4.6 3:3.11 4:9.59 
-0.74758281351765066 1:4.09 2:5.99 3:9.5 4:5.7 
-0.69051262476813957 1:7.21 2:3.05 3:9.75 4:4.37 
-0.59400909210735542 1:3.14 2:5.92 3:5.06 4:3.71 
-0.43329831376566608 1:9.79 2:4.55 3:5.7 4:3.13 
-0.42190201230181573 1:8.83 2:3.84 3:8.96 4:3.66 
-0.32041167142765881 1:4.27 2:9.6 3:4.19 4:3.5 
-1 1:6.67 2:7.92 3:7.87 4:3.16 
-0.6150808622877445 1:5.04 2:9.8 3:3.68 4:4.97 
-0.60085438600927343 1:5.05 2:6.48 3:3.98 4:7.4 
-0.690771806454749 1:6.6 2:6.52 3:7.92 4:4.24 
-0.5612606788010831 1:7.15 2:3.36 3:5.52 4:8.25 
-0.28921717712679706 1:3.33 2:4.95 3:5.06 4:8.65 
-0.66865950572145727 1:3.46 2:4.01 3:9.07 4:5.6 
-0.73125794044647752 1:3.68 2:8.33 3:7.55 4:6 
-0.32311064006439794 1:3.85 2:5.57 3:9.23 4:3.72 
-0.35995922838784505 1:4.81 2:3.63 3:7.05 4:5.24 
-0.12080918958154757 1:5.18 2:5.25 3:6.26 4:5.72 
-0.22688662971481385 1:6.64 2:4.31 3:6.8 4:3.08 
-0.36938166912311537 1:6.83 2:3.29 3:5.01 4:9.34 
-0.34293736306607581 1:9.79 2:7.74 3:3.21 4:5.24 
-0.7151931967455355 1:8.43 2:3.12 3:3.26 4:9.65 
-0.19482618164051096 1:3.62 2:7.84 3:8.39 4:5.05 
-0.24114586133158047 1:4.37 2:5.71 3:4.51 4:5.3 
-0.16300439940423556 1:5.72 2:5.39 3:3.36 4:8.54 
-1 1:4.9 2:3.79 3:6.72 4:8.53 
-0.091189846155401932 1:4.97 2:4.81 3:8.08 4:3.4 
-1 1:3.99 2:8.72 3:6.61 4:6.09 
-0.55193905561230439 1:9.91 2:4.69 3:4.9 4:3.82 
-0.089250558200659053 1:8.41 2:3.65 3:6.07 4:4 
-1 1:4.39 2:9.28 3:3.55 4:8.33 
-0.21703170865847701 1:3.04 2:9.3 3:3.18 4:7.33 
-1 1:7.95 2:5.37 3:8.85 4:3.59 
-1 1:8.4 2:8.08 3:5.86 4:3.51 
-0.6578269968218674 1:3.52 2:9.28 3:4.21 4:8.75 
-0.074849045178053686 1:5.32 2:4.13 3:7.62 4:5.62 
-0.037931253100611524 1:3.44 2:9.29 3:4.96 4:5.59 
-1 1:9.21 2:3.04 3:5.94 4:5.63 
-0.61870228756899259 1:6.31 2:4.13 3:4.73 4:3.58 
-0.91654311350184514 1:3.84 2:6.84 3:5.49 4:8.44 
-1 1:8.33 2:7.56 3:3.1 4:5.97 
-0.39610792029177311 1:6.93 2:4.57 3:3.81 4:9.34 
-0.38745140131616695 1:8.4 2:7.99 3:3.32 4:3.78 
-0.52224429914208215 1:6.46 2:4.66 3:3.29 4:6.45 
-0.1320922433410025 1:6.66 2:5.28 3:8.99 4:3.08 
-0.40630551989674135 1:3.18 2:7.55 3:6.32 4:3.39 
-0.30511699925730107 1:3.76 2:8.94 3:3.68 4:3.83 
